{"learning_rate":0.1,"init_pred":0.0,"feature_names":["Ticket Promedio","Tasa de devoluci\u00f3n ","Revenue Por Lead","Tasa de conversi\u00f3n","Antiguedadde Marca","Tiempo restante de renovaci\u00f3n ","ReviewScore","Clasificaci\u00f3n de Marca","Region","Canal","Segmento","Estatus estr\u00e9gico de Marca","Prioridad de Negocio","Review"],"trees":[{"children_left":[1,2,3,-1,-1,6,-1,-1,9,10,-1,-1,13,-1,-1],"children_right":[8,5,4,-1,-1,7,-1,-1,12,11,-1,-1,14,-1,-1],"feature":[7,4,3,-2,-2,4,-2,-2,3,1,-2,-2,5,-2,-2],"threshold":[1.5,27.142857551574707,1.04347825050354,-2.0,-2.0,30.766666412353516,-2.0,-2.0,3.6244266033172607,0.14162979274988174,-2.0,-2.0,2.083333373069763,-2.0,-2.0],"value":[0.0,-0.1288602056234241,-0.21718700356181334,-1.5220244144178052,-0.34645321778205745,0.3924271333640371,1.0767463015272658,1.8277080357814026,0.49059993467136065,0.49789451720900235,1.9938755325623858,1.1498257839721255,0.32945736434108525,1.9266211604095562,0.7303417044051049]},{"children_left":[1,2,3,-1,-1,6,-1,-1,9,10,-1,-1,13,-1,-1],"children_right":[8,5,4,-1,-1,7,-1,-1,12,11,-1,-1,14,-1,-1],"feature":[7,4,3,-2,-2,4,-2,-2,1,3,-2,-2,5,-2,-2],"threshold":[1.5,27.142857551574707,1.04347825050354,-2.0,-2.0,30.766666412353516,-2.0,-2.0,0.0994717925786972,4.265686273574829,-2.0,-2.0,2.083333373069763,-2.0,-2.0],"value":[2.155346736763201e-05,-0.11598908835854517,-0.1955013446690144,-1.3780653241994905,-0.31190493700405536,0.353276564612655,0.9719874093193103,1.6592242105203892,0.44170029381472153,0.44861678955510087,1.8148058142848988,1.1559417228405386,0.3009451838719201,1.7577126519748723,0.6808860083883015]},{"children_left":[1,2,3,-1,-1,6,-1,-1,9,10,-1,-1,13,-1,-1],"children_right":[8,5,4,-1,-1,7,-1,-1,12,11,-1,-1,14,-1,-1],"feature":[7,4,3,-2,-2,4,-2,-2,2,1,-2,-2,11,-2,-2],"threshold":[1.5,27.142857551574707,1.04347825050354,-2.0,-2.0,30.766666412353516,-2.0,-2.0,1289.8897094726562,0.0994717925786972,-2.0,-2.0,1.5,-2.0,-2.0],"value":[8.760743153738935e-05,-0.10443730824762648,-0.17605574980581337,-1.2601605722777593,-0.28094538109228656,0.3182406070944592,0.8817748942757736,1.528027202969119,0.3980375917285238,0.4041914865033898,1.679693457426096,1.4003059007908274,0.26678608720732677,1.5427674031596905,0.4913137943628487]},{"children_left":[1,2,3,-1,-1,6,-1,-1,9,10,-1,-1,13,-1,-1],"children_right":[8,5,4,-1,-1,7,-1,-1,12,11,-1,-1,14,-1,-1],"feature":[7,4,3,-2,-2,5,-2,-2,1,3,-2,-2,5,-2,-2],"threshold":[1.5,27.142857551574707,1.04347825050354,-2.0,-2.0,-3.066666603088379,-2.0,-2.0,0.11246301606297493,4.265686273574829,-2.0,-2.0,2.083333373069763,-2.0,-2.0],"value":[0.00017336051540531595,-0.09405782295196077,-0.15859326020643838,-1.1607065294804844,-0.2531494235810104,0.28681759811629215,-0.9633358290612469,1.2443040631070532,0.35893277913888577,0.36418897013169416,1.571408279036471,1.0034945628022316,0.2296255969164211,1.5201375065956582,0.4428539813478212]},{"children_left":[1,2,3,-1,-1,6,-1,-1,9,10,-1,-1,13,-1,-1],"children_right":[8,5,4,-1,-1,7,-1,-1,12,11,-1,-1,14,-1,-1],"feature":[7,4,3,-2,-2,4,-2,-2,3,6,-2,-2,5,-2,-2],"threshold":[1.5,27.142857551574707,1.04347825050354,-2.0,-2.0,30.766666412353516,-2.0,-2.0,3.6244266033172607,1.0399999618530273,-2.0,-2.0,2.083333373069763,-2.0,-2.0],"value":[0.00026136691626875484,-0.08472934084847798,-0.14289497721171637,-1.0747595457143007,-0.22815817342342157,0.2585527718040436,0.7051064970860902,1.345040352310634,0.32384020551500686,0.3289045580581509,0.5487727411207736,1.4870624305496387,0.211965018465661,1.4417582401415068,0.42427495183836417]},{"children_left":[1,2,3,-1,-1,6,-1,-1,9,10,-1,-1,13,-1,-1],"children_right":[8,5,4,-1,-1,7,-1,-1,12,11,-1,-1,14,-1,-1],"feature":[7,4,5,-2,-2,5,-2,-2,1,3,-2,-2,11,-2,-2],"threshold":[1.5,27.142857551574707,0.25,-2.0,-2.0,-3.066666603088379,-2.0,-2.0,0.109470896422863,3.4874922037124634,-2.0,-2.0,1.5,-2.0,-2.0],"value":[0.0003524063138680193,-0.07632992603263707,-0.1287715151915691,-0.0487436390319015,-0.8108535825573702,0.233169989089865,-0.9341030090633253,1.0822353591644176,0.2922993813895839,0.2967956285563977,1.4212754272855836,1.0855815731640714,0.18566299954881166,1.2638038939373202,0.24462404596281123]},{"children_left":[1,2,3,-1,-1,6,-1,-1,9,10,-1,-1,13,-1,-1],"children_right":[8,5,4,-1,-1,7,-1,-1,12,11,-1,-1,14,-1,-1],"feature":[7,4,3,-2,-2,4,-2,-2,2,1,-2,-2,11,-2,-2],"threshold":[1.5,27.142857551574707,1.04347825050354,-2.0,-2.0,30.766666412353516,-2.0,-2.0,1289.8897094726562,0.0994717925786972,-2.0,-2.0,1.5,-2.0,-2.0],"value":[0.0004783955829058627,-0.06871600048787957,-0.11598914514194686,-0.9609476085736997,-0.15420911454009698,0.21028077464161438,0.5637749829711243,1.2126269940043763,0.2639171044354378,0.2682384240513646,1.3648093293354537,1.065352433130527,0.17175113120047264,1.2226530955398363,0.2458655118401958]},{"children_left":[1,2,3,-1,-1,6,-1,-1,9,10,-1,-1,13,-1,-1],"children_right":[8,5,4,-1,-1,7,-1,-1,12,11,-1,-1,14,-1,-1],"feature":[7,4,3,-2,-2,5,-2,-2,1,3,-2,-2,5,-2,-2],"threshold":[1.5,27.142857551574707,1.04347825050354,-2.0,-2.0,-3.066666603088379,-2.0,-2.0,0.11246301606297493,4.265686273574829,-2.0,-2.0,2.083333373069763,-2.0,-2.0],"value":[0.0005483928942195137,-0.06191381163180914,-0.10454868234010187,-0.8965349372666784,-0.13901555157973833,0.18970878556666998,-0.8928830078758623,0.9540193501622277,0.23835612656752656,0.24205748311558908,1.3142370024683028,0.7234117563340372,0.1472993163622486,1.266654937706086,0.22081133829344637]},{"children_left":[1,2,3,-1,-1,6,-1,-1,9,10,-1,-1,13,-1,-1],"children_right":[8,5,4,-1,-1,7,-1,-1,12,11,-1,-1,14,-1,-1],"feature":[7,4,5,-2,-2,4,-2,-2,3,1,-2,-2,5,-2,-2],"threshold":[1.5,27.142857551574707,0.25,-2.0,-2.0,30.766666412353516,-2.0,-2.0,3.3712488412857056,0.14158804714679718,-2.0,-2.0,2.083333373069763,-2.0,-2.0],"value":[0.0006034317048366002,-0.055793884288887194,-0.09424244952883935,0.044799645414855906,-0.6687947628532337,0.17112196378421923,0.44584256275189676,1.1095858367360627,0.21532076362385794,0.21929251307236264,1.2770115014834336,0.4874410376102397,0.14328375283404052,1.2417164647711367,0.2596731465457829]},{"children_left":[1,2,3,-1,-1,6,-1,-1,9,10,-1,-1,13,-1,-1],"children_right":[8,5,4,-1,-1,7,-1,-1,12,11,-1,-1,14,-1,-1],"feature":[7,4,3,-2,-2,0,-2,-2,1,3,-2,-2,11,-2,-2],"threshold":[1.5,27.142857551574707,1.04347825050354,-2.0,-2.0,169.80474090576172,-2.0,-2.0,0.09832562878727913,4.265686273574829,-2.0,-2.0,1.5,-2.0,-2.0],"value":[0.0006906123957138398,-0.050228196392380846,-0.08490313507559322,-0.8102839613784766,-0.08615260924507653,0.1544164520921388,1.0569324122179204,0.5119969786621963,0.19455002883972503,0.19803812609851054,1.2419886456428162,0.6218601384338642,0.12502194849421194,1.0746278909852836,0.1328654088701199]},{"children_left":[1,2,3,-1,-1,6,-1,-1,9,10,-1,-1,13,-1,-1],"children_right":[8,5,4,-1,-1,7,-1,-1,12,11,-1,-1,14,-1,-1],"feature":[7,4,5,-2,-2,5,-2,-2,2,5,-2,-2,6,-2,-2],"threshold":[1.5,27.142857551574707,0.25,-2.0,-2.0,-3.066666603088379,-2.0,-2.0,1289.8897094726562,112.5,-2.0,-2.0,1.0399999618530273,-2.0,-2.0],"value":[0.0007197013649849853,-0.0452690549857487,-0.07654285212314715,0.07630076726279157,-0.5847997461155092,0.1393027269681134,-0.9365074256171186,0.798608120553905,0.17580929362677705,0.1789135180449967,1.211029055793984,0.9983059702371139,0.10960177137072658,-2.661948187037044,0.6229439280770724]},{"children_left":[1,2,3,-1,-1,6,-1,-1,9,10,-1,-1,13,-1,-1],"children_right":[8,5,4,-1,-1,7,-1,-1,12,11,-1,-1,14,-1,-1],"feature":[7,4,4,-2,-2,4,-2,-2,1,3,-2,-2,5,-2,-2],"threshold":[1.5,27.142857551574707,10.166666507720947,-2.0,-2.0,30.766666412353516,-2.0,-2.0,0.09832562878727913,4.265686273574829,-2.0,-2.0,2.083333373069763,-2.0,-2.0],"value":[0.0007696536131938051,-0.04076187785288712,-0.06896136754128293,0.06740114237907405,-0.5390792517085945,0.12566594794461763,0.2800788970662632,0.9929209551541521,0.15888958307844428,0.16189828691113325,1.1867650413325663,0.5275621005332183,0.09891722958743067,1.1401811560959405,0.10131232858652967]},{"children_left":[1,2,3,-1,-1,6,-1,-1,9,10,-1,-1,13,-1,-1],"children_right":[8,5,4,-1,-1,7,-1,-1,12,11,-1,-1,14,-1,-1],"feature":[7,5,6,-2,-2,4,-2,-2,3,6,-2,-2,5,-2,-2],"threshold":[1.5,-0.8565217554569244,3.1850000619888306,-2.0,-2.0,27.142857551574707,-2.0,-2.0,3.3712488412857056,1.0399999618530273,-2.0,-2.0,2.083333373069763,-2.0,-2.0],"value":[0.0008215351284161117,-0.036686490151692286,0.09644543691883355,-0.20221252329247974,0.92637498719354,-0.06865118404505534,-0.42231774590484333,0.5586866534496288,0.14362306693578789,0.14655703822565114,0.2740055441811897,1.1641439086697318,0.09040860207378909,1.1154253215215493,0.091772747157184]},{"children_left":[1,2,3,-1,-1,6,-1,-1,9,10,-1,-1,13,-1,-1],"children_right":[8,5,4,-1,-1,7,-1,-1,12,11,-1,-1,14,-1,-1],"feature":[7,5,3,-2,-2,4,-2,-2,1,6,-2,-2,11,-2,-2],"threshold":[1.5,-0.8565217554569244,1.0625,-2.0,-2.0,27.142857551574707,-2.0,-2.0,0.11246301606297493,1.0399999618530273,-2.0,-2.0,1.5,-2.0,-2.0],"value":[0.0008399727918145763,-0.03304205342506284,0.08682066037793781,-0.14729714045997314,0.8219254051497794,-0.061820837299589135,-0.385413497851703,0.5190878253761804,0.12983650642367442,0.1321638971154455,0.036077690510456714,1.1375482615457349,0.07258053290616492,0.8945329593456041,-0.06975396424407108]},{"children_left":[1,2,3,-1,-1,6,-1,-1,9,10,-1,-1,13,-1,-1],"children_right":[8,5,4,-1,-1,7,-1,-1,12,11,-1,-1,14,-1,-1],"feature":[7,5,6,-2,-2,4,-2,-2,3,1,-2,-2,5,-2,-2],"threshold":[1.5,-0.8565217554569244,3.1850000619888306,-2.0,-2.0,27.142857551574707,-2.0,-2.0,3.2291418313980103,0.15112096071243286,-2.0,-2.0,112.5,-2.0,-2.0],"value":[0.000844924474141059,-0.029763777485246026,0.07813022165846097,-0.22603434886180307,0.7998388990240243,-0.055668898303918954,-0.3515441216050738,0.48169080043382967,0.11737917264653376,0.12013932644505618,1.1275926705000834,1.3061595750910948,0.07447705228667988,0.5308976610053716,-2.223792811343276]},{"children_left":[1,2,3,-1,-1,6,-1,-1,9,10,-1,-1,13,-1,-1],"children_right":[8,5,4,-1,-1,7,-1,-1,12,11,-1,-1,14,-1,-1],"feature":[3,4,12,-2,-2,5,-2,-2,3,1,-2,-2,5,-2,-2],"threshold":[1.04347825050354,27.142857551574707,2.5,-2.0,-2.0,-2.7809523344039917,-2.0,-2.0,3.9962825775146484,0.1993589773774147,-2.0,-2.0,-0.8565217554569244,-2.0,-2.0],"value":[0.0008487461232506106,-0.07289456294128414,-0.11883648984295593,-0.8180916423100966,-0.2678386428034703,0.10038797190138704,-1.4767122130928843,0.7192445986623067,0.04617300848120121,0.16157023857233924,1.2981078004576498,-0.7984447988457253,-0.06444742995044482,0.31050436612025667,-0.4012980227876315]},{"children_left":[1,2,3,-1,-1,6,-1,-1,9,10,-1,-1,13,-1,-1],"children_right":[8,5,4,-1,-1,7,-1,-1,12,11,-1,-1,14,-1,-1],"feature":[3,4,12,-2,-2,5,-2,-2,3,1,-2,-2,5,-2,-2],"threshold":[1.04347825050354,27.142857551574707,2.5,-2.0,-2.0,-2.7809523344039917,-2.0,-2.0,3.9733285903930664,0.1993589773774147,-2.0,-2.0,-0.8565217554569244,-2.0,-2.0],"value":[0.000811682240764266,-0.06573741852915711,-0.10718479141342914,-0.7707574995603592,-0.2447092683594003,0.09059267731808077,-1.299001569095044,0.6785636260403104,0.04171422568844503,0.14579499726821105,1.2228300548542081,-0.7288604073931281,-0.05800709957276948,0.2800374450930562,-0.3640661349549852]},{"children_left":[1,2,3,-1,-1,6,-1,-1,9,10,-1,-1,13,-1,-1],"children_right":[8,5,4,-1,-1,7,-1,-1,12,11,-1,-1,14,-1,-1],"feature":[1,1,4,-2,-2,3,-2,-2,4,4,-2,-2,5,-2,-2],"threshold":[0.24926035851240158,0.0006393861840479076,27.142857551574707,-2.0,-2.0,4.987499952316284,-2.0,-2.0,30.766666412353516,10.416666507720947,-2.0,-2.0,13.357142925262451,-2.0,-2.0],"value":[0.0007726594731634466,0.022224562066898663,-0.061311021317948966,-0.6022647740610971,0.658578620169988,0.07200050729888642,1.0100781433111854,-0.13760921483041272,-0.10697309987198579,-0.12135875324860475,-0.36078116725962334,-0.7074094828775049,0.09880581312923507,0.9698095207141885,-0.2912787256400612]},{"children_left":[1,2,3,-1,-1,6,-1,-1,9,10,-1,-1,13,-1,-1],"children_right":[8,5,4,-1,-1,7,-1,-1,12,11,-1,-1,14,-1,-1],"feature":[5,4,5,-2,-2,4,-2,-2,5,4,-2,-2,3,-2,-2],"threshold":[0.25,10.166666507720947,-6.083333253860474,-2.0,-2.0,11.099999904632568,-2.0,-2.0,15.5,27.142857551574707,-2.0,-2.0,1.04347825050354,-2.0,-2.0],"value":[0.0007050759835738012,0.05424363794531542,0.19132842019862814,0.357543369815142,1.660943735661001,0.031177822527743586,-0.5899391187990732,0.36581141730023226,-0.03842039460237122,-0.08606237532201366,-0.6786536984513576,0.33458139501049644,0.029564086368291807,-0.3666186563663609,0.4139938804863652]},{"children_left":[1,2,3,-1,-1,6,-1,-1,9,10,-1,-1,13,-1,-1],"children_right":[8,5,4,-1,-1,7,-1,-1,12,11,-1,-1,14,-1,-1],"feature":[1,1,4,-2,-2,3,-2,-2,4,4,-2,-2,4,-2,-2],"threshold":[0.19946236908435822,0.0006393861840479076,27.142857551574707,-2.0,-2.0,4.987499952316284,-2.0,-2.0,30.766666412353516,10.416666507720947,-2.0,-2.0,38.5,-2.0,-2.0],"value":[0.0005954506725672302,0.02485939505949014,-0.053368042643976626,-0.5460563805013747,0.6002905991620036,0.07932096692811164,1.0322875267288947,-0.12798354656765965,-0.07567534672043986,-0.08643099579900143,-0.16570835110122809,-0.5512035378338112,0.0877930791537438,1.193567620185133,0.32976010582071125]},{"children_left":[1,2,3,-1,-1,6,-1,-1,9,10,-1,-1,13,-1,-1],"children_right":[8,5,4,-1,-1,7,-1,-1,12,11,-1,-1,14,-1,-1],"feature":[5,4,5,-2,-2,4,-2,-2,5,4,-2,-2,3,-2,-2],"threshold":[0.25,10.166666507720947,-6.083333253860474,-2.0,-2.0,11.099999904632568,-2.0,-2.0,15.5,27.142857551574707,-2.0,-2.0,1.04347825050354,-2.0,-2.0],"value":[0.0005624338898774118,0.04753054693764889,0.1673171959375925,0.3183147921474597,1.525272674993506,0.027375306582650954,-0.5312573852271472,0.32969699303964367,-0.03376141527960843,-0.07540949169261964,-0.6138500769115933,0.27429819908124065,0.02566984294255957,-0.3157058344897714,0.35505705860584247]},{"children_left":[1,2,3,-1,-1,6,-1,-1,9,10,-1,-1,13,-1,-1],"children_right":[8,5,4,-1,-1,7,-1,-1,12,11,-1,-1,14,-1,-1],"feature":[1,1,4,-2,-2,3,-2,-2,5,5,-2,-2,4,-2,-2],"threshold":[0.14248120784759521,0.0006393861840479076,27.142857551574707,-2.0,-2.0,5.982142925262451,-2.0,-2.0,-0.9000000059604645,-1.125,-2.0,-2.0,29.642857551574707,-2.0,-2.0],"value":[0.00047631855468604383,0.02815067438241647,-0.046579828862330634,-0.49523679499595297,0.546513680950758,0.09512775698672699,1.0807545890757901,-0.22654137022194729,-0.052962053586291455,0.03041086340204852,0.019778994940555256,2.003343251260256,-0.06969556090441548,-0.37773199990122847,0.7147132180306994]},{"children_left":[1,2,3,-1,-1,6,-1,-1,9,10,-1,-1,13,-1,-1],"children_right":[8,5,4,-1,-1,7,-1,-1,12,11,-1,-1,14,-1,-1],"feature":[1,1,4,-2,-2,1,-2,-2,4,1,-2,-2,5,-2,-2],"threshold":[0.24926035851240158,0.0006393861840479076,27.142857551574707,-2.0,-2.0,0.09086322411894798,-2.0,-2.0,30.766666412353516,0.3318042904138565,-2.0,-2.0,13.357142925262451,-2.0,-2.0],"value":[0.0004684598207266871,0.016617714529635806,-0.04197382504302341,-0.45827565706192386,0.5116870615493776,0.05153037266457424,1.0365338605684593,-0.043464230065829425,-0.08064386594449476,-0.09107156566068805,-0.29634190248206554,-0.6327010492048598,0.06851868208389264,0.8793637966431131,-0.5016030567802389]},{"children_left":[1,2,3,-1,-1,6,-1,-1,9,10,-1,-1,13,-1,-1],"children_right":[8,5,4,-1,-1,7,-1,-1,12,11,-1,-1,14,-1,-1],"feature":[5,4,5,-2,-2,4,-2,-2,5,4,-2,-2,5,-2,-2],"threshold":[0.25,10.166666507720947,-6.083333253860474,-2.0,-2.0,11.099999904632568,-2.0,-2.0,55.0,27.142857551574707,-2.0,-2.0,81.5,-2.0,-2.0],"value":[0.00045400920615704425,0.039098316239990015,0.14260845737964828,0.2807547889246681,1.4129386101813604,0.02168175278102935,-0.48102344298398286,0.2836102927026905,-0.02778688189673204,-0.051917587422034325,-0.4279792806599557,0.2609763174169884,0.05341072284531085,1.2968393109208871,0.027815507025975586]},{"children_left":[1,2,3,-1,-1,6,-1,-1,9,10,-1,-1,13,-1,-1],"children_right":[8,5,4,-1,-1,7,-1,-1,12,11,-1,-1,14,-1,-1],"feature":[1,1,4,-2,-2,1,-2,-2,4,4,-2,-2,6,-2,-2],"threshold":[0.24926035851240158,0.0006393861840479076,27.142857551574707,-2.0,-2.0,0.0903872437775135,-2.0,-2.0,30.766666412353516,20.5,-2.0,-2.0,2.2450000047683716,-2.0,-2.0],"value":[0.0003930366789238258,0.014700156027835453,-0.037656958262935816,-0.41927603942951736,0.4602743168979264,0.04589793723485623,0.967892867142751,-0.03496350056168394,-0.07146685693930663,-0.08059140066474489,-0.3706029885371099,-0.8127219223142226,0.05905475652508493,-0.5256444107525993,0.849178333516797]},{"children_left":[1,2,3,-1,-1,6,-1,-1,9,10,-1,-1,13,-1,-1],"children_right":[8,5,4,-1,-1,7,-1,-1,12,11,-1,-1,14,-1,-1],"feature":[3,4,12,-2,-2,11,-2,-2,3,7,-2,-2,6,-2,-2],"threshold":[1.04347825050354,30.766666412353516,2.5,-2.0,-2.0,3.0,-2.0,-2.0,3.9733285903930664,1.5,-2.0,-2.0,4.855000019073486,-2.0,-2.0],"value":[0.0003849318077448823,-0.03698554274773743,-0.053304057930123716,-0.516712948191996,-0.0018703430695618996,0.06366714705530584,1.013207413202995,-0.11640154064880187,0.023353648762274044,0.08414998327056927,0.7106924613478952,0.9996744503248794,-0.03489621772288019,-0.20023893869078074,0.7649784206063549]},{"children_left":[1,2,3,-1,-1,6,-1,-1,9,10,-1,-1,13,-1,-1],"children_right":[8,5,4,-1,-1,7,-1,-1,12,11,-1,-1,14,-1,-1],"feature":[1,1,4,-2,-2,3,-2,-2,4,1,-2,-2,5,-2,-2],"threshold":[0.24926035851240158,0.0006393861840479076,27.142857551574707,-2.0,-2.0,4.987499952316284,-2.0,-2.0,30.766666412353516,0.3318042904138565,-2.0,-2.0,13.357142925262451,-2.0,-2.0],"value":[0.00038102290463372775,0.012785676303817545,-0.03193584097920438,-0.37270120872260165,0.4199431787648679,0.039433671143554394,0.6975627354862951,-0.08082651145987815,-0.0619234181151653,-0.06980891145726889,-0.21202916722483242,-0.537331246875935,0.0508742564803282,0.8088165917849135,-0.5506818619975238]},{"children_left":[1,2,3,-1,-1,6,-1,-1,9,10,-1,-1,13,-1,-1],"children_right":[8,5,4,-1,-1,7,-1,-1,12,11,-1,-1,14,-1,-1],"feature":[5,4,7,-2,-2,4,-2,-2,5,4,-2,-2,6,-2,-2],"threshold":[1.75,10.166666507720947,1.5,-2.0,-2.0,11.099999904632568,-2.0,-2.0,15.5,27.142857551574707,-2.0,-2.0,1.6299999952316284,-2.0,-2.0],"value":[0.00034641708921954106,0.03177905772399962,0.12191990106121146,0.8818458930260952,1.0460817091462529,0.016888380873920222,-0.43026499886276404,0.2481084091709285,-0.02326330806249103,-0.056542286033594555,-0.4955508856095068,0.12775035708684546,0.023287630701695903,1.3003957569290014,0.0806249726234344]},{"children_left":[1,2,3,-1,-1,6,-1,-1,9,10,-1,-1,13,-1,-1],"children_right":[8,5,4,-1,-1,7,-1,-1,12,11,-1,-1,14,-1,-1],"feature":[3,4,4,-2,-2,0,-2,-2,3,7,-2,-2,6,-2,-2],"threshold":[1.04347825050354,39.53125,38.5,-2.0,-2.0,412.8185272216797,-2.0,-2.0,2.9999507665634155,1.5,-2.0,-2.0,4.855000019073486,-2.0,-2.0],"value":[0.00028996184979685136,-0.031311373200698225,-0.04162579699763521,-0.27707072154497253,-4.700101432050408,0.07927404474050141,1.0374820693593183,-1.3668170102714172,0.019712838567164978,0.07995818011093918,0.9192656101799326,1.024826886979177,-0.023300172796705678,-0.14723176687488654,0.6828926484428599]},{"children_left":[1,2,3,-1,-1,6,-1,-1,9,10,-1,-1,13,-1,-1],"children_right":[8,5,4,-1,-1,7,-1,-1,12,11,-1,-1,14,-1,-1],"feature":[1,1,4,-2,-2,1,-2,-2,4,4,-2,-2,4,-2,-2],"threshold":[0.24926035851240158,0.0006393861840479076,27.142857551574707,-2.0,-2.0,0.07692018151283264,-2.0,-2.0,30.766666412353516,20.5,-2.0,-2.0,38.5,-2.0,-2.0],"value":[0.00033887127649568505,0.010891197907265431,-0.02690001509003989,-0.3303782041365848,0.383101690783843,0.033409665752749264,0.9460262971396587,-0.014783162354990704,-0.05266194954710225,-0.05962693903946397,-0.2814004328040974,-0.6793881994973716,0.04696842032795937,1.1344993756834174,0.03330428706890596]},{"children_left":[1,2,3,-1,-1,6,-1,-1,9,10,-1,-1,13,-1,-1],"children_right":[8,5,4,-1,-1,7,-1,-1,12,11,-1,-1,14,-1,-1],"feature":[5,4,5,-2,-2,4,-2,-2,5,4,-2,-2,5,-2,-2],"threshold":[1.75,10.166666507720947,-6.083333253860474,-2.0,-2.0,11.099999904632568,-2.0,-2.0,55.0,27.142857551574707,-2.0,-2.0,81.5,-2.0,-2.0],"value":[0.0003354318862787732,0.026662974649547953,0.10564213315394538,0.1726180084774528,1.2783646242092992,0.013616135019041152,-0.39761189924617724,0.21669712364202137,-0.01943974563648168,-0.03857306202664829,-0.34818602377420793,0.19389536464617613,0.04397247921175929,1.1404076879087257,0.019188807937887502]},{"children_left":[1,2,3,-1,-1,6,-1,-1,9,10,-1,-1,13,-1,-1],"children_right":[8,5,4,-1,-1,7,-1,-1,12,11,-1,-1,14,-1,-1],"feature":[1,3,5,-2,-2,3,-2,-2,3,5,-2,-2,3,-2,-2],"threshold":[0.32960790395736694,1.04347825050354,-2.1291667222976685,-2.0,-2.0,3.9733285903930664,-2.0,-2.0,1.3666666746139526,-2.1291667222976685,-2.0,-2.0,5.103174686431885,-2.0,-2.0],"value":[0.0002940732655126599,0.007088805461746388,-0.02340344966987153,-0.7264295315273693,-0.10534658341780227,0.024260063485762984,0.747830621026355,-0.08425900031777744,-0.065135418994668,-0.03939345442724817,-0.6055110322595023,-0.2739265893489074,-0.10029541388700217,-0.735775004223677,-0.36452564850604074]},{"children_left":[1,2,3,-1,-1,6,-1,-1,9,10,-1,-1,13,-1,-1],"children_right":[8,5,4,-1,-1,7,-1,-1,12,11,-1,-1,14,-1,-1],"feature":[4,5,5,-2,-2,5,-2,-2,5,5,-2,-2,4,-2,-2],"threshold":[10.416666507720947,13.5,5.5,-2.0,-2.0,21.5,-2.0,-2.0,1.75,-8.5,-2.0,-2.0,27.142857551574707,-2.0,-2.0],"value":[0.0002786540251728483,0.029572771324163395,0.11693888316760995,0.7451471783435171,3.3893920809752114,0.003595849461422411,-0.7312081499784688,0.12889375112085205,-0.01422300121125354,0.011867506864724405,-1.0502613047630869,0.13030209271935522,-0.045529019505515446,-0.4834637960960459,0.18326616640007304]},{"children_left":[1,2,3,-1,-1,6,-1,-1,9,10,-1,-1,13,-1,-1],"children_right":[8,5,4,-1,-1,7,-1,-1,12,11,-1,-1,14,-1,-1],"feature":[1,1,3,-2,-2,2,-2,-2,4,4,-2,-2,6,-2,-2],"threshold":[0.24926035851240158,0.0006393861840479076,2.991803288459778,-2.0,-2.0,1371.462890625,-2.0,-2.0,30.766666412353516,20.5,-2.0,-2.0,2.2450000047683716,-2.0,-2.0],"value":[0.00021178396776532215,0.008633005108262374,-0.02341972730411196,-0.11358265148010324,-0.6938329190056414,0.027732112200636747,0.49374733820595074,-0.07722180518847334,-0.04208520402348914,-0.04792135468885226,-0.23049359318652912,-0.5972503693679405,0.04139774308988187,-0.5052129355773664,0.7630613750394302]},{"children_left":[1,2,3,-1,-1,6,-1,-1,9,10,-1,-1,13,-1,-1],"children_right":[8,5,4,-1,-1,7,-1,-1,12,11,-1,-1,14,-1,-1],"feature":[5,5,3,-2,-2,7,-2,-2,4,13,-2,-2,4,-2,-2],"threshold":[-0.8565217554569244,-2.0625,1.0714285969734192,-2.0,-2.0,1.5,-2.0,-2.0,13.25,0.5,-2.0,-2.0,27.142857551574707,-2.0,-2.0],"value":[0.00019135045428067383,0.03141723751312135,-0.004080138580263555,-0.5807379817535864,0.2485196477343068,0.07736344277398086,0.8395986524611558,1.0371322237564393,-0.010827032199423981,0.01352525894806459,0.49975824329481294,-0.0485602947024507,-0.04120468292238016,-0.4280866404772006,0.1795276836351074]},{"children_left":[1,2,3,-1,-1,6,-1,-1,9,10,-1,-1,13,-1,-1],"children_right":[8,5,4,-1,-1,7,-1,-1,12,11,-1,-1,14,-1,-1],"feature":[4,5,12,-2,-2,5,-2,-2,4,5,-2,-2,4,-2,-2],"threshold":[10.416666507720947,13.5,2.5,-2.0,-2.0,21.5,-2.0,-2.0,30.766666412353516,1.75,-2.0,-2.0,38.5,-2.0,-2.0],"value":[0.00016170707160295967,0.025005914820176913,0.10369606125995375,0.6975684455391563,2.9464345281429836,0.0016086530867399859,-0.7054062480011176,0.10915196856698847,-0.012137080828876247,-0.02237902028709656,0.012655519050182194,-0.36337031149913607,0.04633399680951165,1.1248798080329165,0.3862634600299131]},{"children_left":[1,2,3,-1,-1,6,-1,-1,9,10,-1,-1,13,-1,-1],"children_right":[8,5,4,-1,-1,7,-1,-1,12,11,-1,-1,14,-1,-1],"feature":[3,5,6,-2,-2,5,-2,-2,3,7,-2,-2,6,-2,-2],"threshold":[1.5005878806114197,-2.1291667222976685,4.734999895095825,-2.0,-2.0,-1.4142857193946838,-2.0,-2.0,2.9999507665634155,1.5,-2.0,-2.0,4.815000057220459,-2.0,-2.0],"value":[0.0001393954642861779,-0.02194719730163755,-0.10139158726641619,-0.8517310058304861,1.4894941163427737,-0.01341268363260336,0.9599584052108067,-0.19970879664268226,0.013872805758469524,0.0568369026617371,0.7698435770387261,1.0024296657454153,-0.01647616443039181,-0.11915544945442726,0.5785735326456835]},{"children_left":[1,2,3,-1,-1,6,-1,-1,9,10,-1,-1,13,-1,-1],"children_right":[8,5,4,-1,-1,7,-1,-1,12,11,-1,-1,14,-1,-1],"feature":[1,1,3,-2,-2,1,-2,-2,3,13,-2,-2,1,-2,-2],"threshold":[0.32960790395736694,0.0006393861840479076,2.991803288459778,-2.0,-2.0,0.07688042148947716,-2.0,-2.0,1.3666666746139526,0.5,-2.0,-2.0,0.4888668954372406,-2.0,-2.0],"value":[0.00014408268684131667,0.005501854037908614,-0.02005357715959854,-0.09812448995273691,-0.6332157286609315,0.018886340146329155,0.8184708700391412,-0.025370410382278673,-0.05144827577894197,-0.028256789840271416,0.07268329103000593,-0.3251233950848046,-0.08312466648387168,-0.3351663614727948,-0.7528597610509543]},{"children_left":[1,2,3,-1,-1,6,-1,-1,9,10,-1,-1,13,-1,-1],"children_right":[8,5,4,-1,-1,7,-1,-1,12,11,-1,-1,14,-1,-1],"feature":[4,5,5,-2,-2,5,-2,-2,4,5,-2,-2,4,-2,-2],"threshold":[10.416666507720947,13.5,5.5,-2.0,-2.0,26.5,-2.0,-2.0,30.766666412353516,1.75,-2.0,-2.0,38.5,-2.0,-2.0],"value":[0.00014794408812105505,0.021676812133292405,0.09081792425887332,0.6005362547068207,2.458813219934078,0.001118803664206529,-0.5614670181556906,0.1138499755655657,-0.010509629882616426,-0.01944728781100681,0.00958920149619367,-0.32115044627462097,0.04051532420627393,1.114803263729227,0.3328470674568836]},{"children_left":[1,2,3,-1,-1,6,-1,-1,9,10,-1,-1,13,-1,-1],"children_right":[8,5,4,-1,-1,7,-1,-1,12,11,-1,-1,14,-1,-1],"feature":[3,5,6,-2,-2,5,-2,-2,3,7,-2,-2,3,-2,-2],"threshold":[1.5005878806114197,-2.1291667222976685,4.734999895095825,-2.0,-2.0,-1.8416666388511658,-2.0,-2.0,2.9999507665634155,1.5,-2.0,-2.0,3.0001124143600464,-2.0,-2.0],"value":[0.00013138514428640035,-0.018862810111559512,-0.09291808675874443,-0.8083426782290224,1.1892518303497561,-0.010907235512904264,1.124703478626791,-0.13122438847621354,0.011941947299397305,0.04783255670419536,0.6882041031097602,0.9918416056583997,-0.013410454203143548,-0.8691875628283228,-0.041059508501607854]},{"children_left":[1,2,3,-1,-1,6,-1,-1,9,10,-1,-1,13,-1,-1],"children_right":[8,5,4,-1,-1,7,-1,-1,12,11,-1,-1,14,-1,-1],"feature":[1,1,3,-2,-2,1,-2,-2,3,6,-2,-2,1,-2,-2],"threshold":[0.3318042904138565,0.0006393861840479076,1.996688723564148,-2.0,-2.0,0.06649621203541756,-2.0,-2.0,1.3666666746139526,2.9450000524520874,-2.0,-2.0,0.4888668954372406,-2.0,-2.0],"value":[0.0001295288547709979,0.004750376690038129,-0.017254452584379635,-0.06873993821867665,-0.48722205966800175,0.016274856347109568,0.8572247587534252,-0.013001342258367125,-0.044377507944402164,-0.023335758949230304,0.09314360903373597,-0.2843678581877203,-0.07313266628057682,-0.29448608713896174,-0.7040554699443068]},{"children_left":[1,2,3,-1,-1,6,-1,-1,9,10,-1,-1,13,-1,-1],"children_right":[8,5,4,-1,-1,7,-1,-1,12,11,-1,-1,14,-1,-1],"feature":[5,4,0,-2,-2,3,-2,-2,5,5,-2,-2,4,-2,-2],"threshold":[-8.5,16.0,315.44110107421875,-2.0,-2.0,1.1666666865348816,-2.0,-2.0,-0.8565217554569244,-2.0625,-2.0,-2.0,13.25,-2.0,-2.0],"value":[0.0001358965947406745,-0.13922824243701776,-0.02401725034266782,-0.427330638637978,1.7775754416742002,-0.17122965419341077,-1.0560500048162258,-1.262942630031187,0.00145881924552434,0.02865321089460808,0.016022241027511264,0.7626445381237752,-0.007791058388438841,0.06515765548590852,-0.22712586990045763]},{"children_left":[1,2,3,-1,-1,6,-1,-1,9,10,-1,-1,13,-1,-1],"children_right":[8,5,4,-1,-1,7,-1,-1,12,11,-1,-1,14,-1,-1],"feature":[4,5,11,-2,-2,6,-2,-2,5,5,-2,-2,5,-2,-2],"threshold":[1.5,113.5,2.0,-2.0,-2.0,2.9600000381469727,-2.0,-2.0,55.0,1.75,-2.0,-2.0,61.5,-2.0,-2.0],"value":[0.00012387275386608687,-0.06381552403357142,-0.1478085266529435,-0.9622948598475385,0.6655384469212895,0.0449343343510332,3.073090817119954,0.009867617958650782,0.0028685719917585883,-0.004388138387198787,0.1113215443747504,-0.16401450239166734,0.0718555725905087,1.6439741279196933,0.32847707330500414]},{"children_left":[1,2,3,-1,-1,6,-1,-1,9,10,-1,-1,13,-1,-1],"children_right":[8,5,4,-1,-1,7,-1,-1,12,11,-1,-1,14,-1,-1],"feature":[1,3,4,-2,-2,7,-2,-2,3,6,-2,-2,3,-2,-2],"threshold":[0.3318042904138565,1.04347825050354,27.142857551574707,-2.0,-2.0,0.5,-2.0,-2.0,1.3666666746139526,2.9450000524520874,-2.0,-2.0,5.103174686431885,-2.0,-2.0],"value":[0.00010121570740034987,0.004206576738435913,-0.015065054315257986,-0.23025248154436628,0.322415535505884,0.015058719143895033,-1.3133024883826836,0.13341386926603702,-0.03944076035329176,-0.020538826778438875,0.09012863395334168,-0.25678471625272326,-0.06527169735998913,-0.5869676968400204,-0.22342748596744408]},{"children_left":[1,2,3,-1,-1,6,-1,-1,9,10,-1,-1,13,-1,-1],"children_right":[8,5,4,-1,-1,7,-1,-1,12,11,-1,-1,14,-1,-1],"feature":[0,13,6,-2,-2,6,-2,-2,6,5,-2,-2,4,-2,-2],"threshold":[216.26227569580078,0.5,2.6950000524520874,-2.0,-2.0,3.084999918937683,-2.0,-2.0,4.815000057220459,-0.70652174949646,-2.0,-2.0,14.5,-2.0,-2.0],"value":[8.26410770560522e-05,0.013119179367458244,0.046698105837154065,-0.02641160650369089,2.34875011338334,0.0044976201394083615,-0.7946092015174746,0.1090565686923703,-0.012479716530425185,-0.01702680793116429,0.1553904165858294,-0.19150710224718476,0.06393860612559465,0.8122212144778913,-0.496283484085862]},{"children_left":[1,2,3,-1,-1,6,-1,-1,9,10,-1,-1,13,-1,-1],"children_right":[8,5,4,-1,-1,7,-1,-1,12,11,-1,-1,14,-1,-1],"feature":[4,5,12,-2,-2,5,-2,-2,4,4,-2,-2,4,-2,-2],"threshold":[10.166666507720947,13.5,2.5,-2.0,-2.0,21.5,-2.0,-2.0,30.766666412353516,10.833333492279053,-2.0,-2.0,38.5,-2.0,-2.0],"value":[4.9737438441168294e-05,0.018161770004790464,0.08133813276248485,0.5891072007268409,2.2300873071269405,0.00019300618135365113,-0.6056340935539776,0.08034343536855773,-0.00878362160189394,-0.01630431142150676,-0.6917453922436154,-0.09595561348551768,0.03440047491900001,1.1069610322003565,0.2623408921598411]},{"children_left":[1,2,3,-1,-1,6,-1,-1,9,10,-1,-1,13,-1,-1],"children_right":[8,5,4,-1,-1,7,-1,-1,12,11,-1,-1,14,-1,-1],"feature":[5,4,0,-2,-2,3,-2,-2,5,7,-2,-2,13,-2,-2],"threshold":[-8.5,16.0,315.44110107421875,-2.0,-2.0,1.1666666865348816,-2.0,-2.0,-6.583333253860474,1.5,-2.0,-2.0,0.5,-2.0,-2.0],"value":[4.7269128553842536e-05,-0.1274350202161091,-0.02706083475776667,-0.4209196777642403,1.6074861761015387,-0.1553153082005617,-1.029555495595391,-1.1700072158561754,0.001257402591287538,0.09297931950918491,1.013339823214941,1.0267801394000213,-0.0007912011327206181,0.1907115738694267,-0.06344489300343063]},{"children_left":[1,2,3,-1,-1,6,-1,-1,9,10,-1,-1,13,-1,-1],"children_right":[8,5,4,-1,-1,7,-1,-1,12,11,-1,-1,14,-1,-1],"feature":[3,5,6,-2,-2,6,-2,-2,3,7,-2,-2,6,-2,-2],"threshold":[1.5005878806114197,-2.1291667222976685,4.734999895095825,-2.0,-2.0,2.950000047683716,-2.0,-2.0,2.9999507665634155,0.5,-2.0,-2.0,4.815000057220459,-2.0,-2.0],"value":[3.974473155797706e-05,-0.015110033384466034,-0.08232220968872518,-0.7540151221143514,0.8533246013174063,-0.007889596074195175,0.3862185536818345,-0.1883873600792915,0.00945985406840419,0.03930570485802489,-1.2495000144384063,0.8406325035837631,-0.011622652050941207,-0.09115175333772993,0.4963211576856468]},{"children_left":[1,2,3,-1,-1,6,-1,-1,9,10,-1,-1,13,-1,-1],"children_right":[8,5,4,-1,-1,7,-1,-1,12,11,-1,-1,14,-1,-1],"feature":[4,5,6,-2,-2,6,-2,-2,5,5,-2,-2,6,-2,-2],"threshold":[1.5,116.5,2.899999976158142,-2.0,-2.0,4.534999847412109,-2.0,-2.0,55.0,46.5,-2.0,-2.0,1.774999976158142,-2.0,-2.0],"value":[4.415690003419779e-05,-0.05687340590743242,-0.10178766654062757,0.4697974398608224,-0.8429145508694913,0.1138541832233656,0.462689347607678,6.138151443716985,0.00248743286304865,-0.0038710240776833878,-0.0021609874718298266,-0.5320754501657431,0.06293505304773375,2.0160952239175614,0.3379854518237064]},{"children_left":[1,2,3,-1,-1,6,-1,-1,9,10,-1,-1,13,-1,-1],"children_right":[8,5,4,-1,-1,7,-1,-1,12,11,-1,-1,14,-1,-1],"feature":[11,0,4,-2,-2,6,-2,-2,4,1,-2,-2,5,-2,-2],"threshold":[3.5,149.73141479492188,12.5,-2.0,-2.0,4.815000057220459,-2.0,-2.0,10.5,0.11070261523127556,-2.0,-2.0,13.5,-2.0,-2.0],"value":[2.1199637024246813e-05,0.005945017800793758,0.026678176835891236,-0.00681324000448102,0.6090581152488808,-0.00434404180935952,-0.06483101951644417,0.5172620827413925,-0.022633503580535837,0.12590866911018506,1.2417439758132331,1.6484484609074237,-0.03374614505609902,-0.24535559857317574,-2.351134775245592]},{"children_left":[1,2,3,-1,-1,6,-1,-1,9,10,-1,-1,13,-1,-1],"children_right":[8,5,4,-1,-1,7,-1,-1,12,11,-1,-1,14,-1,-1],"feature":[3,5,6,-2,-2,5,-2,-2,7,4,-2,-2,2,-2,-2],"threshold":[1.5005878806114197,-2.1291667222976685,4.734999895095825,-2.0,-2.0,-1.8416666388511658,-2.0,-2.0,0.5,30.476191520690918,-2.0,-2.0,712.8389892578125,-2.0,-2.0],"value":[2.920290874655938e-05,-0.014151055949318515,-0.07545301137676345,-0.716159283946422,0.7457482854019123,-0.007565539001351267,0.9410907636756263,-0.10092338580297776,0.008846466623408962,-0.1900414554332702,-1.0652935597060353,0.9136535871576256,0.011539286134066278,0.713292633321548,-0.04047044621967674]},{"children_left":[1,2,3,-1,-1,6,-1,-1,9,10,-1,-1,13,-1,-1],"children_right":[8,5,4,-1,-1,7,-1,-1,12,11,-1,-1,14,-1,-1],"feature":[5,5,5,-2,-2,1,-2,-2,4,13,-2,-2,4,-2,-2],"threshold":[-0.8565217554569244,-2.0625,-2.25,-2.0,-2.0,0.09182524681091309,-2.0,-2.0,13.25,0.5,-2.0,-2.0,26.5,-2.0,-2.0],"value":[2.7105368966440014e-05,0.018072218049114293,-0.007761298159768806,0.10528255050007797,-0.8312176134061517,0.05150995821394294,0.6832317585182092,0.6914316253339261,-0.0063403024220458366,0.006947602025453049,0.4040941707616819,-0.07328045496549745,-0.022915963319885744,-0.2969796717018127,0.18804836399642086]},{"children_left":[1,2,3,-1,-1,6,-1,-1,9,10,-1,-1,13,-1,-1],"children_right":[8,5,4,-1,-1,7,-1,-1,12,11,-1,-1,14,-1,-1],"feature":[4,5,11,-2,-2,6,-2,-2,5,5,-2,-2,5,-2,-2],"threshold":[1.5,113.5,2.0,-2.0,-2.0,2.9600000381469727,-2.0,-2.0,55.0,46.5,-2.0,-2.0,59.0,-2.0,-2.0],"value":[1.7655288349358923e-05,-0.05096642372336399,-0.12149486621596356,-0.8656294843490898,0.6168257225932098,0.0403502085431764,2.505369153825208,0.02890374294169747,0.002206227121040053,-0.0034039243199333936,-0.00167539140772693,-0.485970223556777,0.055539969354971366,2.183406998064941,0.30443022539349684]},{"children_left":[1,2,3,-1,-1,6,-1,-1,9,10,-1,-1,13,-1,-1],"children_right":[8,5,4,-1,-1,7,-1,-1,12,11,-1,-1,14,-1,-1],"feature":[5,6,3,-2,-2,6,-2,-2,5,5,-2,-2,4,-2,-2],"threshold":[-8.5,2.7699999809265137,1.2536231875419617,-2.0,-2.0,3.434999942779541,-2.0,-2.0,-0.8565217554569244,-2.0625,-2.0,-2.0,13.25,-2.0,-2.0],"value":[7.995529211798025e-06,-0.10820656096110147,-0.13516965086042101,-0.9753432198991717,-1.0161796091275417,-0.021330571302463977,2.2080388843085132,-0.6950294300289589,0.0010352288542273436,0.020950626706836097,-0.0006293206940316295,0.6312110799142925,-0.005738777916924514,0.04254462274302182,-0.16607663621133592]},{"children_left":[1,2,3,-1,-1,6,-1,-1,9,10,-1,-1,13,-1,-1],"children_right":[8,5,4,-1,-1,7,-1,-1,12,11,-1,-1,14,-1,-1],"feature":[1,1,3,-2,-2,1,-2,-2,3,4,-2,-2,5,-2,-2],"threshold":[0.38408851623535156,0.0006393861840479076,1.996688723564148,-2.0,-2.0,0.062379466369748116,-2.0,-2.0,1.3666666746139526,12.416666984558105,-2.0,-2.0,-2.0625,-2.0,-2.0],"value":[7.89423246953764e-06,0.002639209665683914,-0.0143374051557433,-0.05726213428394101,-0.43647720215339386,0.011067590236069614,0.8106406306710797,-0.010247359002731665,-0.04020368384790662,-0.019665230291028728,-0.3086917975669659,-0.07879773105354,-0.08041066555195701,-0.7927391648357864,-0.42312958332789896]},{"children_left":[1,2,3,-1,-1,6,-1,-1,9,10,-1,-1,13,-1,-1],"children_right":[8,5,4,-1,-1,7,-1,-1,12,11,-1,-1,14,-1,-1],"feature":[6,12,0,-2,-2,1,-2,-2,6,4,-2,-2,6,-2,-2],"threshold":[1.0750000476837158,1.5,142.75750732421875,-2.0,-2.0,0.0992610827088356,-2.0,-2.0,1.3450000286102295,8.5,-2.0,-2.0,2.950000047683716,-2.0,-2.0],"value":[2.1549637498868134e-05,0.10126832789293552,-0.004493570798194093,2.5552950989547187,-0.2200951237754253,0.22822011054168753,1.526351593441893,2.5889893236866555,-0.0009360363532768644,-0.062323733153474274,0.27041170151110044,-0.6107710233682272,0.002029985269373167,0.23773036508732967,-0.03556114695692374]},{"children_left":[1,2,3,-1,-1,6,-1,-1,9,10,-1,-1,13,-1,-1],"children_right":[8,5,4,-1,-1,7,-1,-1,12,11,-1,-1,14,-1,-1],"feature":[4,5,6,-2,-2,6,-2,-2,5,5,-2,-2,5,-2,-2],"threshold":[1.5,116.5,2.899999976158142,-2.0,-2.0,4.534999847412109,-2.0,-2.0,55.0,46.5,-2.0,-2.0,62.5,-2.0,-2.0],"value":[1.2934974245101417e-05,-0.04691167200382808,-0.08531809296340855,0.35693101997275334,-0.7521972185402584,0.09907838917342937,0.39678655475435737,3.9355518607781397,0.0020272475809056277,-0.0029071984176490093,2.213366644702266e-05,-0.45110459912147516,0.04893729514786259,1.3685699202527464,0.2034714157808374]},{"children_left":[1,2,3,-1,-1,6,-1,-1,9,10,-1,-1,13,-1,-1],"children_right":[8,5,4,-1,-1,7,-1,-1,12,11,-1,-1,14,-1,-1],"feature":[0,5,5,-2,-2,5,-2,-2,5,4,-2,-2,6,-2,-2],"threshold":[217.1977081298828,107.5,98.5,-2.0,-2.0,116.5,-2.0,-2.0,-0.8565217554569244,20.076923370361328,-2.0,-2.0,2.6450001001358032,-2.0,-2.0],"value":[2.1269978858660353e-06,0.009809781504940553,0.01374869205602962,0.08960170378833462,3.3836471187986983,-0.048201352986538236,-0.6050212399810733,0.9523298919841389,-0.00953864460682047,0.01554905244027946,0.3695717275890733,-0.5580410055107066,-0.01702937427138638,-0.3635997221444492,-0.06048737769676953]},{"children_left":[1,2,3,-1,-1,6,-1,-1,9,10,-1,-1,13,-1,-1],"children_right":[8,5,4,-1,-1,7,-1,-1,12,11,-1,-1,14,-1,-1],"feature":[3,13,6,-2,-2,4,-2,-2,7,4,-2,-2,2,-2,-2],"threshold":[1.5005878806114197,0.5,2.7200000286102295,-2.0,-2.0,27.142857551574707,-2.0,-2.0,0.5,26.642857551574707,-2.0,-2.0,977.3209228515625,-2.0,-2.0],"value":[-1.1544916015522496e-05,-0.012392430360115194,0.02274506779112136,-0.39290431759245814,2.3859165602892203,-0.02185882632810187,-0.30765898657160035,0.23826854050580287,0.0076868711054641275,-0.16262517583185246,-0.999709641374921,0.11396817392805106,0.009992790932822697,0.44472375970702055,-0.053068940270405394]},{"children_left":[1,2,3,-1,-1,6,-1,-1,9,10,-1,-1,13,-1,-1],"children_right":[8,5,4,-1,-1,7,-1,-1,12,11,-1,-1,14,-1,-1],"feature":[4,5,5,-2,-2,5,-2,-2,4,3,-2,-2,11,-2,-2],"threshold":[10.416666507720947,13.5,5.5,-2.0,-2.0,26.5,-2.0,-2.0,10.833333492279053,3.323809504508972,-2.0,-2.0,0.5,-2.0,-2.0],"value":[-4.194441681859239e-05,0.01396055372756436,0.06331147260785203,0.4344262703539684,1.9716549718929688,-0.0007131559815880831,-0.472131894104699,0.0801085291989283,-0.006973691103912693,-0.11883480510909282,-0.6285374148219206,-0.9972355123060695,-0.0037669534508243496,0.2977711929749364,-0.1204103955670555]},{"children_left":[1,2,3,-1,-1,6,-1,-1,9,10,-1,-1,13,-1,-1],"children_right":[8,5,4,-1,-1,7,-1,-1,12,11,-1,-1,14,-1,-1],"feature":[5,6,3,-2,-2,6,-2,-2,5,7,-2,-2,5,-2,-2],"threshold":[-8.5,2.7699999809265137,1.2536231875419617,-2.0,-2.0,3.2350000143051147,-2.0,-2.0,-6.583333253860474,1.5,-2.0,-2.0,-6.083333253860474,-2.0,-2.0],"value":[-4.5074972347497775e-05,-0.09778537535427213,-0.12114763304289586,-0.9462742243817233,-0.949760091842345,-0.022511389140584388,2.0998229463991938,-0.6046774985179297,0.0008827308331325704,0.07141994075219228,0.8159218778891772,1.0219568165503983,-0.0006927136819524715,-0.8181802777874976,0.005738011833943643]},{"children_left":[1,2,3,-1,-1,6,-1,-1,9,10,-1,-1,13,-1,-1],"children_right":[8,5,4,-1,-1,7,-1,-1,12,11,-1,-1,14,-1,-1],"feature":[4,4,4,-2,-2,0,-2,-2,4,5,-2,-2,6,-2,-2],"threshold":[30.766666412353516,20.5,15.875,-2.0,-2.0,167.60130310058594,-2.0,-2.0,38.5,0.04347825050354004,-2.0,-2.0,2.2450000047683716,-2.0,-2.0],"value":[-4.2367417518130755e-05,-0.0031790343135407,0.003174210902537188,-0.024713836057827416,0.41205992319287643,-0.03445333314013741,-0.027781315391546286,-0.5195643664810129,0.028282289279857334,0.07258648504048228,1.0470774222966919,1.1018360574685442,0.009314626591078448,-2.890864044584937,0.46178427511232845]},{"children_left":[1,2,3,-1,-1,6,-1,-1,9,10,-1,-1,13,-1,-1],"children_right":[8,5,4,-1,-1,7,-1,-1,12,11,-1,-1,14,-1,-1],"feature":[4,5,12,-2,-2,5,-2,-2,4,6,-2,-2,12,-2,-2],"threshold":[10.166666507720947,13.5,2.5,-2.0,-2.0,21.5,-2.0,-2.0,12.416666984558105,3.0199999809265137,-2.0,-2.0,2.5,-2.0,-2.0],"value":[-2.1967737225723494e-05,0.013132075788455292,0.060653847470941165,0.46198343378815754,1.7524568144355228,-0.0003841738745507035,-0.5260645660775629,0.06322068717558546,-0.006437282466203284,-0.04211279527929344,-0.6140808781126005,-0.13433148248978646,0.0010113019425116903,-0.04515555851853919,0.4767794174512639]},{"children_left":[1,2,3,-1,-1,6,-1,-1,9,10,-1,-1,13,-1,-1],"children_right":[8,5,4,-1,-1,7,-1,-1,12,11,-1,-1,14,-1,-1],"feature":[3,13,6,-2,-2,4,-2,-2,7,4,-2,-2,3,-2,-2],"threshold":[1.5005878806114197,0.5,2.7549999952316284,-2.0,-2.0,27.142857551574707,-2.0,-2.0,0.5,26.642857551574707,-2.0,-2.0,2.9994677305221558,-2.0,-2.0],"value":[-2.7770662042583603e-05,-0.011440486941986421,0.02163301037557455,-0.33645313480119093,1.9277434002607055,-0.0203508202931696,-0.2899785486058004,0.21832190041052735,0.007068639223574963,-0.14576961914877198,-0.9412885605234949,0.10716628239360412,0.009137974756187456,0.7188100678745813,-0.03576240860391334]},{"children_left":[1,2,3,-1,-1,6,-1,-1,9,10,-1,-1,13,-1,-1],"children_right":[8,5,4,-1,-1,7,-1,-1,12,11,-1,-1,14,-1,-1],"feature":[6,12,0,-2,-2,1,-2,-2,6,4,-2,-2,13,-2,-2],"threshold":[1.0750000476837158,1.5,142.75750732421875,-2.0,-2.0,0.0992610827088356,-2.0,-2.0,1.3450000286102295,8.5,-2.0,-2.0,0.5,-2.0,-2.0],"value":[-3.3801972438515383e-05,0.09095303588878269,-0.0025901768597760668,2.051393261985794,-0.18796519885430663,0.20323806253908971,1.5113611726752467,2.279872946677333,-0.0008943500588303785,-0.04616333765286745,0.24925836886802355,-0.5085072367441368,0.001292876422013195,0.19506628905235868,-0.03348557188701476]},{"children_left":[1,2,3,-1,-1,6,-1,-1,9,10,-1,-1,13,-1,-1],"children_right":[8,5,4,-1,-1,7,-1,-1,12,11,-1,-1,14,-1,-1],"feature":[4,5,3,-2,-2,6,-2,-2,4,6,-2,-2,11,-2,-2],"threshold":[10.166666507720947,13.5,5.0227272510528564,-2.0,-2.0,1.0750000476837158,-2.0,-2.0,10.833333492279053,2.3700000047683716,-2.0,-2.0,0.5,-2.0,-2.0],"value":[-3.3843177123112355e-05,0.012423583237640383,0.0550071810772569,0.35318633097218527,0.8983892712039192,0.0003118601353326064,1.898184091073911,-0.016310951711846516,-0.0061094130965679,-0.08487138616785916,2.792596300871894,-0.6670071812322499,-0.0034523573383754276,0.2700417044479454,-0.10902033503856327]},{"children_left":[1,2,3,-1,-1,6,-1,-1,9,10,-1,-1,13,-1,-1],"children_right":[8,5,4,-1,-1,7,-1,-1,12,11,-1,-1,14,-1,-1],"feature":[4,4,4,-2,-2,6,-2,-2,4,3,-2,-2,4,-2,-2],"threshold":[30.766666412353516,20.5,15.875,-2.0,-2.0,3.2649999856948853,-2.0,-2.0,38.5,3.962912082672119,-2.0,-2.0,39.53125,-2.0,-2.0],"value":[-2.909141606027638e-05,-0.0028189701077022014,0.0027204232222820383,-0.023323512110028907,0.370087218688694,-0.030087025475913597,-0.6915493300228738,-0.05902790117644959,0.02516400647654994,0.06595046712394212,1.070786208671143,1.1246953116527458,0.0077023684861289455,-1.736994783181344,0.7682951154621145]},{"children_left":[1,2,3,-1,-1,6,-1,-1,9,10,-1,-1,13,-1,-1],"children_right":[8,5,4,-1,-1,7,-1,-1,12,11,-1,-1,14,-1,-1],"feature":[1,1,5,-2,-2,6,-2,-2,3,5,-2,-2,5,-2,-2],"threshold":[0.3955910950899124,0.0006393861840479076,-2.1291667222976685,-2.0,-2.0,4.805000066757202,-2.0,-2.0,1.3666666746139526,-6.083333253860474,-2.0,-2.0,-2.0625,-2.0,-2.0],"value":[-1.0605450985275789e-05,0.002080056604195364,-0.01224494332523955,-0.5670753244374415,-0.044965627216427925,0.009169184167384414,0.04276152049279386,0.5380065172236534,-0.033116220161833125,-0.013915647134023618,-0.6022877483399574,-0.11579930520987831,-0.0735604239337566,-0.7916338809836097,-0.39669097135723635]},{"children_left":[1,2,3,-1,-1,6,-1,-1,9,10,-1,-1,13,-1,-1],"children_right":[8,5,4,-1,-1,7,-1,-1,12,11,-1,-1,14,-1,-1],"feature":[4,5,11,-2,-2,6,-2,-2,5,5,-2,-2,5,-2,-2],"threshold":[1.5,113.5,2.0,-2.0,-2.0,2.9600000381469727,-2.0,-2.0,55.0,46.5,-2.0,-2.0,81.5,-2.0,-2.0],"value":[-1.4493052277644297e-05,-0.0402467495121331,-0.09748916610537506,-0.7732365956603221,0.6063631428209517,0.03386781365353352,2.21368256063962,0.028239318346071938,0.0017125398756539442,-0.002605954213227765,-7.81117744141607e-05,-0.4175579057788629,0.042766948655597437,0.7431204499107765,0.0776924038751858]},{"children_left":[1,2,3,-1,-1,6,-1,-1,9,10,-1,-1,13,-1,-1],"children_right":[8,5,4,-1,-1,7,-1,-1,12,11,-1,-1,14,-1,-1],"feature":[4,5,5,-2,-2,5,-2,-2,4,3,-2,-2,11,-2,-2],"threshold":[10.416666507720947,13.5,5.5,-2.0,-2.0,26.5,-2.0,-2.0,10.833333492279053,3.323809504508972,-2.0,-2.0,0.5,-2.0,-2.0],"value":[-1.9224839898159147e-05,0.011366168495731396,0.04903202918204938,0.34305026576496583,1.5685371946688826,0.0001668247307869576,-0.3858640742841636,0.06802142447105994,-0.005655409306526747,-0.09090920941207763,-0.487444741457599,-0.8305822113741925,-0.003211427112201967,0.24661006760760107,-0.09952426851236498]},{"children_left":[1,2,3,-1,-1,6,-1,-1,9,10,-1,-1,13,-1,-1],"children_right":[8,5,4,-1,-1,7,-1,-1,12,11,-1,-1,14,-1,-1],"feature":[0,5,5,-2,-2,5,-2,-2,6,6,-2,-2,4,-2,-2],"threshold":[210.94734954833984,107.5,98.5,-2.0,-2.0,116.5,-2.0,-2.0,4.815000057220459,4.6549999713897705,-2.0,-2.0,16.5,-2.0,-2.0],"value":[-2.1300164101591713e-05,0.008216264255029294,0.011637699035534528,0.07724058035679955,2.9005984095523965,-0.04149890966206016,-0.5656232045643532,0.9050521643441118,-0.00756655968316794,-0.010485522702223138,-0.05297079506417083,-0.4315416321867176,0.04152298804330149,0.5287154728418734,-0.6532142940036405]},{"children_left":[1,2,3,-1,-1,6,-1,-1,9,10,-1,-1,13,-1,-1],"children_right":[8,5,4,-1,-1,7,-1,-1,12,11,-1,-1,14,-1,-1],"feature":[6,6,6,-2,-2,4,-2,-2,5,5,-2,-2,5,-2,-2],"threshold":[3.3249999284744263,2.950000047683716,2.7549999952316284,-2.0,-2.0,33.084848403930664,-2.0,-2.0,110.5,12.75,-2.0,-2.0,117.0,-2.0,-2.0],"value":[-3.0110326756839093e-05,-0.00893252653201118,0.013316166950407313,-0.0940164069457566,1.1661738474618708,-0.031331159270155284,-0.3589495490686438,0.6213006400409824,0.00699851813510794,0.010564769674329299,0.015136262191161409,0.30661747303534814,-0.05720431004055694,-0.6467850753790929,0.7526895325464718]},{"children_left":[1,2,3,-1,-1,6,-1,-1,9,10,-1,-1,13,-1,-1],"children_right":[8,5,4,-1,-1,7,-1,-1,12,11,-1,-1,14,-1,-1],"feature":[1,12,4,-2,-2,13,-2,-2,1,7,-2,-2,6,-2,-2],"threshold":[0.0006393861840479076,0.5,40.5,-2.0,-2.0,0.5,-2.0,-2.0,0.05263080075383186,1.5,-2.0,-2.0,4.805000066757202,-2.0,-2.0],"value":[-4.0202488470709125e-05,-0.012006011130536667,-0.034679653333384595,-0.4683424967266459,0.7397547948984092,0.006292643328658159,0.5613199679661974,-0.09382244638133834,0.005370613398400485,0.028194337137755206,0.8243260924545958,0.9968294629900133,-0.004053335270627031,-0.047626676185195414,0.3138402814732085]},{"children_left":[1,2,3,-1,-1,6,-1,-1,9,10,-1,-1,13,-1,-1],"children_right":[8,5,4,-1,-1,7,-1,-1,12,11,-1,-1,14,-1,-1],"feature":[5,6,3,-2,-2,6,-2,-2,5,7,-2,-2,5,-2,-2],"threshold":[-8.5,2.7699999809265137,1.2536231875419617,-2.0,-2.0,3.434999942779541,-2.0,-2.0,-6.583333253860474,1.5,-2.0,-2.0,-6.083333253860474,-2.0,-2.0],"value":[-2.6269092499537515e-05,-0.07775669778244064,-0.09610341259511673,-0.8829592862101378,-0.8304426134301439,-0.018642960733482608,1.762074949545204,-0.5992119978428945,0.0007115917767569522,0.0625249921534777,0.7488338154438912,1.0194102331769452,-0.0006690069553751384,-0.8168352478818773,0.005574094410046333]},{"children_left":[1,2,3,-1,-1,6,-1,-1,9,10,-1,-1,13,-1,-1],"children_right":[8,5,4,-1,-1,7,-1,-1,12,11,-1,-1,14,-1,-1],"feature":[6,6,6,-2,-2,4,-2,-2,11,5,-2,-2,4,-2,-2],"threshold":[3.3249999284744263,2.950000047683716,2.7549999952316284,-2.0,-2.0,33.084848403930664,-2.0,-2.0,2.5,117.0,-2.0,-2.0,10.5,-2.0,-2.0],"value":[-2.514660176359044e-05,-0.008322552324931955,0.011223860522091764,-0.08754306144781665,1.0016012629573852,-0.02800069311346978,-0.32474930840168503,0.577582341897222,0.006525814472268577,0.017614790502566327,0.12820982028550199,2.988388344870316,-0.012101786298524701,0.2828446207813151,-0.2654393523507162]},{"children_left":[1,2,3,-1,-1,6,-1,-1,9,10,-1,-1,13,-1,-1],"children_right":[8,5,4,-1,-1,7,-1,-1,12,11,-1,-1,14,-1,-1],"feature":[3,4,12,-2,-2,5,-2,-2,7,1,-2,-2,2,-2,-2],"threshold":[1.5005878806114197,27.142857551574707,2.5,-2.0,-2.0,-3.066666603088379,-2.0,-2.0,0.5,0.3095238208770752,-2.0,-2.0,703.0629577636719,-2.0,-2.0],"value":[-3.259685232234254e-05,-0.009538197811035612,-0.016716703695703043,-0.28508943219479604,0.08175931096335119,0.017666155980262086,-1.0093044732195717,0.26999712055390573,0.00587797158357536,-0.12535004449585951,-0.9668849356053275,-0.344217651775555,0.007654717795154106,0.5757942025222375,-0.02627064207872971]},{"children_left":[1,2,3,-1,-1,6,-1,-1,9,10,-1,-1,13,-1,-1],"children_right":[8,5,4,-1,-1,7,-1,-1,12,11,-1,-1,14,-1,-1],"feature":[5,4,4,-2,-2,6,-2,-2,5,6,-2,-2,6,-2,-2],"threshold":[-0.8565217554569244,20.076923370361328,13.477272510528564,-2.0,-2.0,3.180000066757202,-2.0,-2.0,-0.25,3.9000000953674316,-2.0,-2.0,2.6450001001358032,-2.0,-2.0],"value":[-2.8506095333393128e-05,0.01258304941349727,0.03022471181755509,0.01293776168859931,0.7711525645701525,-0.012172527986176341,-0.886273920154609,0.2631258483368947,-0.004478626093318756,-0.1357489927543913,-2.10319162639068,-0.21172344479894112,-0.0031681364804603154,-0.19507458621692986,0.014000512337097069]},{"children_left":[1,2,3,-1,-1,6,-1,-1,9,10,-1,-1,13,-1,-1],"children_right":[8,5,4,-1,-1,7,-1,-1,12,11,-1,-1,14,-1,-1],"feature":[6,12,0,-2,-2,1,-2,-2,6,4,-2,-2,6,-2,-2],"threshold":[1.0750000476837158,1.5,142.75750732421875,-2.0,-2.0,0.0992610827088356,-2.0,-2.0,1.3450000286102295,8.5,-2.0,-2.0,1.3600000143051147,-2.0,-2.0],"value":[-2.6604456755159287e-05,0.07680014310563306,0.0012887269847856196,1.7487262050066872,-0.14421649217433302,0.16744061954856204,1.4631055458083748,1.9254624041765251,-0.0007532272535531764,-0.03467407861485622,0.294489633529912,-0.4300461538234729,0.0008857001511310478,1.3570920065768057,0.002875671822317131]},{"children_left":[1,2,3,-1,-1,6,-1,-1,9,10,-1,-1,13,-1,-1],"children_right":[8,5,4,-1,-1,7,-1,-1,12,11,-1,-1,14,-1,-1],"feature":[1,1,3,-2,-2,6,-2,-2,3,0,-2,-2,4,-2,-2],"threshold":[0.380741685628891,0.0006393861840479076,1.996688723564148,-2.0,-2.0,4.805000066757202,-2.0,-2.0,1.3666666746139526,237.89196014404297,-2.0,-2.0,12.083333492279053,-2.0,-2.0],"value":[-2.4840326795744832e-05,0.0018179828479872235,-0.010408701048841028,-0.03604929672752411,-0.380171228817041,0.007892058468877326,0.041507566669727124,0.4173455075259813,-0.027991607648277142,-0.011304772677956024,-0.26524378159338047,-0.01896527628236842,-0.060116410240060536,-0.510967040384149,-0.26355764151851757]},{"children_left":[1,2,3,-1,-1,6,-1,-1,9,10,-1,-1,13,-1,-1],"children_right":[8,5,4,-1,-1,7,-1,-1,12,11,-1,-1,14,-1,-1],"feature":[5,5,5,-2,-2,7,-2,-2,6,6,-2,-2,5,-2,-2],"threshold":[107.5,98.5,97.5,-2.0,-2.0,0.5,-2.0,-2.0,2.899999976158142,2.034999966621399,-2.0,-2.0,117.0,-2.0,-2.0],"value":[-2.5121636732471414e-05,0.0017839883513484942,0.0003556767347858026,0.009959480391905452,-0.7914570270290995,0.14162118911915625,3.5124143421132454,0.16769751206249148,-0.02919205790227665,0.10158879593129984,-0.38919566764911234,2.1621891161788054,-0.04344568045649938,-0.43288830241887144,0.22970102189562105]},{"children_left":[1,2,3,-1,-1,6,-1,-1,9,10,-1,-1,13,-1,-1],"children_right":[8,5,4,-1,-1,7,-1,-1,12,11,-1,-1,14,-1,-1],"feature":[4,5,12,-2,-2,5,-2,-2,4,6,-2,-2,6,-2,-2],"threshold":[10.166666507720947,13.5,2.5,-2.0,-2.0,21.5,-2.0,-2.0,12.416666984558105,3.0199999809265137,-2.0,-2.0,2.7699999809265137,-2.0,-2.0],"value":[-3.572981603733435e-05,0.0099488871404797,0.04946618023027565,0.40532377396297375,1.4142494006294917,-0.0012907106374964914,-0.43011229287033265,0.040233116458530734,-0.004905294075825048,-0.03058258263892146,-0.5169404101824698,-0.08397860281291493,0.00045579077392379454,0.25019615650474863,-0.06410303414940895]},{"children_left":[1,2,3,-1,-1,6,-1,-1,9,10,-1,-1,13,-1,-1],"children_right":[8,5,4,-1,-1,7,-1,-1,12,11,-1,-1,14,-1,-1],"feature":[5,5,5,-2,-2,6,-2,-2,5,3,-2,-2,13,-2,-2],"threshold":[112.5,55.0,46.5,-2.0,-2.0,1.774999976158142,-2.0,-2.0,113.5,2.898348808288574,-2.0,-2.0,0.5,-2.0,-2.0],"value":[-3.644357428602043e-05,0.0012660085326819815,-0.001708807511272533,0.006551549284404351,-0.3968015424129963,0.027708536587398625,1.6558722708319915,0.12076179972625639,-0.03620656060123198,-0.09910797291205252,-0.6762493326308457,-0.8745694135074336,0.022782957078868304,1.844951140702605,-0.009525381665034017]},{"children_left":[1,2,3,-1,-1,6,-1,-1,9,10,-1,-1,13,-1,-1],"children_right":[8,5,4,-1,-1,7,-1,-1,12,11,-1,-1,14,-1,-1],"feature":[3,4,12,-2,-2,5,-2,-2,3,1,-2,-2,3,-2,-2],"threshold":[1.5005878806114197,27.142857551574707,2.5,-2.0,-2.0,-3.066666603088379,-2.0,-2.0,2.9994677305221558,0.16590214520692825,-2.0,-2.0,3.0001124143600464,-2.0,-2.0],"value":[-3.559445689761587e-05,-0.008685795911659721,-0.015215115095447778,-0.2666464863251969,0.07773130389744488,0.016058337748739163,-0.9299254106776368,0.25031426030684545,0.005343087848906497,0.021721317155775407,0.7176479163981778,-0.8296220894126437,-0.006226016518757658,-0.7117569951850423,-0.013016734880815518]},{"children_left":[1,2,3,-1,-1,6,-1,-1,9,10,-1,-1,13,-1,-1],"children_right":[8,5,4,-1,-1,7,-1,-1,12,11,-1,-1,14,-1,-1],"feature":[5,4,4,-2,-2,6,-2,-2,5,4,-2,-2,4,-2,-2],"threshold":[-0.8565217554569244,20.076923370361328,13.477272510528564,-2.0,-2.0,3.180000066757202,-2.0,-2.0,-0.25,10.166666507720947,-2.0,-2.0,39.53125,-2.0,-2.0],"value":[-2.4869306004704725e-05,0.011679305511590393,0.02758981836139419,0.017479198960789304,0.7105773161571227,-0.010647044653198027,-0.8306835408241515,0.25129034330749195,-0.004154810484090898,-0.12457277753924549,-1.9112603314604888,-0.1999240911805807,-0.0029526618267706555,-0.032983245448711236,1.1058507064797474]},{"children_left":[1,2,3,-1,-1,6,-1,-1,9,10,-1,-1,13,-1,-1],"children_right":[8,5,4,-1,-1,7,-1,-1,12,11,-1,-1,14,-1,-1],"feature":[3,1,3,-2,-2,1,-2,-2,1,1,-2,-2,6,-2,-2],"threshold":[12.964285850524902,0.0006393861840479076,1.996688723564148,-2.0,-2.0,0.1661904752254486,-2.0,-2.0,0.0873379111289978,0.025657895021140575,-2.0,-2.0,4.805000066757202,-2.0,-2.0],"value":[-1.9226819967293048e-05,0.0019108917743040407,-0.009683370084493336,-0.03407488982645899,-0.3714481395723999,0.007779071970681592,0.2430614098933081,-0.05441477462457236,-0.02313083251077604,-0.1446327497587377,-0.01956777519874787,-0.8253989772889372,-0.010490533560572356,-0.08450809407817404,0.4244472429956174]},{"children_left":[1,2,3,-1,-1,6,-1,-1,9,10,-1,-1,13,-1,-1],"children_right":[8,5,4,-1,-1,7,-1,-1,12,11,-1,-1,14,-1,-1],"feature":[0,11,11,-2,-2,4,-2,-2,1,3,-2,-2,1,-2,-2],"threshold":[149.73141479492188,3.5,1.5,-2.0,-2.0,38.5,-2.0,-2.0,0.0006561679765582085,1.995412826538086,-2.0,-2.0,0.049699852243065834,-2.0,-2.0],"value":[-1.8563547306551938e-05,0.009579810016855601,0.01661070824614797,0.02436440858454344,0.365845270898642,-0.020842643980734175,-0.14479752519500502,-1.576093767396191,-0.004612281173278231,-0.025562900547169656,-0.16654090111765324,-0.3526982431338073,0.0006040500332267728,0.7997068308468998,-0.03920210397149203]},{"children_left":[1,2,3,-1,-1,6,-1,-1,9,10,-1,-1,13,-1,-1],"children_right":[8,5,4,-1,-1,7,-1,-1,12,11,-1,-1,14,-1,-1],"feature":[6,12,0,-2,-2,1,-2,-2,5,5,-2,-2,6,-2,-2],"threshold":[1.0750000476837158,1.5,133.18788146972656,-2.0,-2.0,0.0992610827088356,-2.0,-2.0,-0.8565217554569244,-2.0625,-2.0,-2.0,2.6450001001358032,-2.0,-2.0],"value":[-8.386326048867087e-06,0.06698712518271847,-3.207896920051222e-05,1.7913148247456394,-0.11270537181792264,0.14743393584025252,1.4587198217153026,1.7776816077246207,-0.0006420258785486521,0.010502815094896817,-0.04899679943454248,0.505005120548181,-0.004584039833649746,-0.2304464191384039,0.004473236115178746]},{"children_left":[1,2,3,-1,-1,6,-1,-1,9,10,-1,-1,13,-1,-1],"children_right":[8,5,4,-1,-1,7,-1,-1,12,11,-1,-1,14,-1,-1],"feature":[6,6,4,-2,-2,7,-2,-2,6,5,-2,-2,11,-2,-2],"threshold":[2.7699999809265137,2.7549999952316284,8.5,-2.0,-2.0,1.5,-2.0,-2.0,3.084999918937683,86.5,-2.0,-2.0,2.5,-2.0,-2.0],"value":[-5.529708781163213e-06,0.013373650256967774,-0.006888267734790715,0.37674539966422577,-0.19940609943933665,0.2686476368130535,1.6179485484993847,1.0165138049098763,-0.0034893019275342224,-0.05186010493679157,-0.3889071822305944,2.3024705010418733,0.0005942888102949843,0.09516897132415933,-0.13454255713094243]},{"children_left":[1,2,3,-1,-1,6,-1,-1,9,10,-1,-1,13,-1,-1],"children_right":[8,5,4,-1,-1,7,-1,-1,12,11,-1,-1,14,-1,-1],"feature":[5,5,5,-2,-2,7,-2,-2,0,5,-2,-2,6,-2,-2],"threshold":[107.5,98.5,97.5,-2.0,-2.0,0.5,-2.0,-2.0,305.77561950683594,116.5,-2.0,-2.0,4.919999837875366,-2.0,-2.0],"value":[-1.1956242766349755e-05,0.0016392622043906518,0.0003974246589534548,0.00997389128179275,-0.7451078752310859,0.12321993420090051,2.6696733965797255,0.12684253771810153,-0.02663332449895331,-0.051350909871844805,-0.5434986180017619,0.2050385456962478,0.04175149356008757,0.061421751293682436,1.084301093157889]},{"children_left":[1,2,3,-1,-1,6,-1,-1,9,10,-1,-1,13,-1,-1],"children_right":[8,5,4,-1,-1,7,-1,-1,12,11,-1,-1,14,-1,-1],"feature":[4,5,5,-2,-2,6,-2,-2,4,6,-2,-2,11,-2,-2],"threshold":[10.166666507720947,13.5,-6.083333253860474,-2.0,-2.0,4.365000009536743,-2.0,-2.0,10.833333492279053,2.3700000047683716,-2.0,-2.0,0.5,-2.0,-2.0],"value":[-1.958928749033814e-05,0.009645619014790942,0.045845154878939504,-0.23348598221901246,0.8521799004408234,-0.0006503347575963738,-0.07389516231544249,0.25153783065604396,-0.004733375817032333,-0.06209451846756724,2.6239733669057053,-0.5485522503055961,-0.002798282669491341,0.2087477431466969,-0.08322606671589464]},{"children_left":[1,2,3,-1,-1,6,-1,-1,9,10,-1,-1,13,-1,-1],"children_right":[8,5,4,-1,-1,7,-1,-1,12,11,-1,-1,14,-1,-1],"feature":[3,6,0,-2,-2,7,-2,-2,7,1,-2,-2,2,-2,-2],"threshold":[1.5005878806114197,4.894999980926514,59.361083984375,-2.0,-2.0,0.5,-2.0,-2.0,0.5,0.3095238208770752,-2.0,-2.0,616.9646911621094,-2.0,-2.0],"value":[-1.760665905261425e-05,-0.008315611639761598,-0.005507058287850899,0.09527487623839566,-0.15772094181611446,-0.06396635236785828,-0.7690564848427506,0.09601250306701951,0.00514208040680657,-0.10125381043098082,-0.8739724696750781,-0.23338206902851547,0.006582614994020974,0.616503752079994,-0.01142162368687359]},{"children_left":[1,2,3,-1,-1,6,-1,-1,9,10,-1,-1,13,-1,-1],"children_right":[8,5,4,-1,-1,7,-1,-1,12,11,-1,-1,14,-1,-1],"feature":[6,6,5,-2,-2,7,-2,-2,6,12,-2,-2,11,-2,-2],"threshold":[2.7699999809265137,2.7549999952316284,100.0,-2.0,-2.0,1.5,-2.0,-2.0,3.084999918937683,2.5,-2.0,-2.0,2.5,-2.0,-2.0],"value":[-1.5524595488306078e-05,0.012276330065337059,-0.0060280978048634125,-0.10218402971311316,0.8742111770154598,0.24288847033538616,1.4504257164214491,1.0151552294979698,-0.0032161708155084233,-0.04653848994916077,-0.15535387167186662,-0.6352554024436372,0.0004412136013212251,0.08501161319191108,-0.1226158794986309]},{"children_left":[1,2,3,-1,-1,6,-1,-1,9,10,-1,-1,13,-1,-1],"children_right":[8,5,4,-1,-1,7,-1,-1,12,11,-1,-1,14,-1,-1],"feature":[4,5,11,-2,-2,5,-2,-2,4,11,-2,-2,4,-2,-2],"threshold":[1.5,113.5,2.0,-2.0,-2.0,115.5,-2.0,-2.0,10.166666507720947,3.5,-2.0,-2.0,30.766666412353516,-2.0,-2.0],"value":[-1.8501365855931214e-05,-0.03086329668790228,-0.06958232324133833,-0.642966344527184,0.5810494552713531,0.019268125253955305,1.7828639566055067,-0.011166172524484753,0.0013055600183127568,0.014754520800057267,0.08782233280412548,1.3543748790857937,-0.004430059518962329,-0.07093455527337825,0.4076065129247805]},{"children_left":[1,2,3,-1,-1,6,-1,-1,9,10,-1,-1,13,-1,-1],"children_right":[8,5,4,-1,-1,7,-1,-1,12,11,-1,-1,14,-1,-1],"feature":[3,6,5,-2,-2,7,-2,-2,7,1,-2,-2,3,-2,-2],"threshold":[1.04347825050354,4.894999980926514,-2.1291667222976685,-2.0,-2.0,0.5,-2.0,-2.0,0.5,0.3095238208770752,-2.0,-2.0,2.9994677305221558,-2.0,-2.0],"value":[-1.1987063581227413e-05,-0.008085226017481814,-0.005510270258018646,-0.3617014520405282,-0.015175270642106187,-0.059047847846967885,-0.7393475451934041,0.08552549640190862,0.004950003455516627,-0.09368824301991599,-0.8373123273481164,-0.216276240788351,0.006338523180764436,0.5579845003699091,-0.018123763394930117]},{"children_left":[1,2,3,-1,-1,6,-1,-1,9,10,-1,-1,13,-1,-1],"children_right":[8,5,4,-1,-1,7,-1,-1,12,11,-1,-1,14,-1,-1],"feature":[6,12,0,-2,-2,1,-2,-2,6,13,-2,-2,6,-2,-2],"threshold":[1.0750000476837158,1.5,369.77476501464844,-2.0,-2.0,0.11072796955704689,-2.0,-2.0,3.3249999284744263,0.5,-2.0,-2.0,3.40500009059906,-2.0,-2.0],"value":[-9.692867217062375e-06,0.060761453322063036,0.003569399452408235,0.26597094160287155,-0.8521489651693637,0.12941219883581462,1.4406638530844225,1.6652315518773757,-0.000584462743722871,-0.0078091463218263124,0.0662512993203718,-0.2300783352953997,0.00499843031157248,0.5128929193220715,0.018754403483627582]},{"children_left":[1,2,3,-1,-1,6,-1,-1,9,10,-1,-1,13,-1,-1],"children_right":[8,5,4,-1,-1,7,-1,-1,12,11,-1,-1,14,-1,-1],"feature":[4,5,11,-2,-2,12,-2,-2,5,5,-2,-2,5,-2,-2],"threshold":[1.5,113.5,2.0,-2.0,-2.0,2.5,-2.0,-2.0,55.0,46.5,-2.0,-2.0,59.0,-2.0,-2.0],"value":[-1.0081728095866361e-05,-0.028234778344706946,-0.06341040676972072,-0.602112875885299,0.48192716502083605,0.017308832319445702,-0.13275986651166907,0.7714582671854829,0.0012015077955097378,-0.001493857367491308,0.005783548449739307,-0.35949636338489,0.026825399118644115,1.8329135124991547,0.1331925388704798]},{"children_left":[1,2,3,-1,-1,6,-1,-1,9,10,-1,-1,13,-1,-1],"children_right":[8,5,4,-1,-1,7,-1,-1,12,11,-1,-1,14,-1,-1],"feature":[1,3,3,-2,-2,3,-2,-2,1,7,-2,-2,12,-2,-2],"threshold":[0.0006393861840479076,1.996688723564148,1.5064895749092102,-2.0,-2.0,2.004424810409546,-2.0,-2.0,0.04989497736096382,1.5,-2.0,-2.0,0.5,-2.0,-2.0],"value":[-1.2136450174407838e-05,-0.008617584738658042,-0.0035908670760773126,-0.05592472045726707,1.2036022007312928,-0.04914611719151975,-1.1200349739518243,-0.12821132189809745,0.0038791589654347527,0.01868506329169238,0.7320385683041253,0.9813217319447546,-0.0019232823679723502,0.10221027551080814,-0.07936840756649254]},{"children_left":[1,2,3,-1,-1,6,-1,-1,9,10,-1,-1,13,-1,-1],"children_right":[8,5,4,-1,-1,7,-1,-1,12,11,-1,-1,14,-1,-1],"feature":[4,5,5,-2,-2,5,-2,-2,4,6,-2,-2,5,-2,-2],"threshold":[10.166666507720947,13.5,5.5,-2.0,-2.0,31.5,-2.0,-2.0,10.833333492279053,2.3700000047683716,-2.0,-2.0,-0.8565217554569244,-2.0,-2.0],"value":[-1.6476735729778252e-06,0.008410419566734885,0.0388567356972881,0.3041573306823569,1.2981036065042642,-0.0002491904513616183,-0.25647365347425033,0.06343645647931569,-0.00410426895216036,-0.055230620349303254,2.279630081690786,-0.5069834578636874,-0.0023795081179855417,0.1753844150843825,-0.0769985532066705]},{"children_left":[1,2,3,-1,-1,6,-1,-1,9,10,-1,-1,13,-1,-1],"children_right":[8,5,4,-1,-1,7,-1,-1,12,11,-1,-1,14,-1,-1],"feature":[5,0,3,-2,-2,6,-2,-2,5,7,-2,-2,5,-2,-2],"threshold":[-8.5,279.17161560058594,2.747549057006836,-2.0,-2.0,2.6950000524520874,-2.0,-2.0,-6.583333253860474,1.5,-2.0,-2.0,-6.083333253860474,-2.0,-2.0],"value":[-3.2459266347769392e-06,-0.05764696441926451,-0.08823005269651672,-1.0180523373163877,-0.7759447777980893,-0.013760382218866633,0.5501540387133805,-0.6816145820962926,0.0005439406121633974,0.054496839545882095,0.7034789051095672,1.0186339991010351,-0.0006610942736181981,-0.8175636552494534,0.005309568527157863]},{"children_left":[1,2,3,-1,-1,6,-1,-1,9,10,-1,-1,13,-1,-1],"children_right":[8,5,4,-1,-1,7,-1,-1,12,11,-1,-1,14,-1,-1],"feature":[4,4,4,-2,-2,0,-2,-2,4,5,-2,-2,6,-2,-2],"threshold":[30.766666412353516,20.5,18.875,-2.0,-2.0,169.4616470336914,-2.0,-2.0,38.5,0.04347825050354004,-2.0,-2.0,2.2450000047683716,-2.0,-2.0],"value":[-4.913401976821447e-06,-0.0018600382901861202,0.0018121313077797533,-0.005411831102238404,0.5467095676389299,-0.019936552802484,0.06660738013005044,-0.3890457309560891,0.016747192362222874,0.0588950947880672,1.035142392659561,1.0847544308221837,-0.0012973107040717441,-1.7283788856100704,0.23923293043220692]}]}